svm_type c_svc
kernel_type rbf
gamma 0.2
nr_class 4
total_sv 47
rho -0.189915 -0.91644 -0.550631 -0.910921 -0.502704 0.4242
label 1 2 3 4
nr_sv 23 16 3 5
SV
0.6270949294945328 0 0 1:0 2:2 3:1 4:1 5:2 
0.2929973769192371 0 0.183687798939095 1:0 2:0 3:2 4:2 5:2 
0.300990275868734 0 0.06458228209705895 1:0 2:0 3:1 4:2 5:0 
0.7860323295653421 0 0 1:0 2:0 3:0 4:0 5:1 
0.2462611537954698 0 0.1494754538322321 1:0 2:0 3:1 4:4 5:3 
0.1753652985181785 0.02444101916875275 0.07769434709315636 1:0 2:0 3:1 4:3 5:6 
0.4971740357881454 0 0.2843946538328181 1:0 2:2 3:0 4:2 5:0 
1 0 0 1:0 2:0 3:0 4:0 5:1 
0.6153315078231068 0.03317316563766792 0.3845557660867802 1:0 2:0 3:0 4:5 5:0 
0.002972627776123892 0 0.09365336309839041 1:0 2:0 3:1 4:0 5:2 
1 0 0 1:0 2:0 3:0 4:1 5:0 
1 0.8937517544774476 0.1074427943544076 1:0 2:0 3:0 4:1 5:0 
0.6355250604646074 0.07442558785740361 0.3476286835426633 1:0 2:2 3:1 4:5 5:4 
0.5919198008372666 0.06236208193716264 0.3262259727411923 1:0 2:2 3:2 4:2 5:6 
0 0 0.172686348133846 1:0 2:2 3:0 4:1 5:3 
1 0.8960008172521699 0.09558123500118884 1:0 2:0 3:0 4:0 5:1 
0 0 0.004136048716687495 1:0 2:2 3:0 4:2 5:3 
0 0 0.1397243498998211 1:1 2:1 3:0 4:0 5:2 
0.04641319242964465 0 0.02885091654922655 1:0 2:1 3:0 4:1 5:4 
0.1315191272249681 0 0.126675004362983 1:0 2:0 3:0 4:2 5:4 
0.5035153736923236 0.05140662183527386 0.2782354484951796 1:1 2:0 3:0 4:2 5:7 
0 0.8932032297265505 0 1:1 2:0 3:0 4:1 5:1 
0.6968752900082462 0.07123572210757127 0.3887180057654197 1:0 2:0 3:0 4:4 5:9 
-1 1 0 1:0 2:0 3:0 4:0 5:0 
-0 0.6866849301869716 0.2088253682922913 1:1 2:0 3:2 4:0 5:0 
-0.9423943968054562 0.07012711099669139 0.3877864694543822 1:0 2:4 3:6 4:0 5:1 
-1 1 0.3426559126019341 1:0 2:0 3:0 4:0 5:0 
-0.6327074542079322 0 0 1:0 2:0 3:1 4:0 5:0 
-0.003782106700530915 0 0 1:0 2:2 3:1 4:0 5:0 
-0.7795191944970701 0.05412997314093965 0.8732522462953671 1:0 2:5 3:1 4:0 5:1 
-0.4852584373179664 0 0.163080857946479 1:0 2:0 3:5 4:0 5:0 
-1 0 0 1:0 2:0 3:1 4:0 5:0 
-0.09394561454210029 0 0.07353394527890625 1:0 2:1 3:4 4:0 5:0 
-0.8690303250583443 0.04270032813063249 0.3432052145499322 1:0 2:0 3:5 4:2 5:0 
-1 0.03615995592603052 0.1572998772257979 1:0 2:2 3:1 4:0 5:0 
-0.8006245404347432 0.06691735411311162 0.3390019265984482 1:1 2:2 3:7 4:0 5:0 
-0.5427253106417831 0.04328034750562263 0.2641216004314684 1:0 2:5 3:2 4:0 5:0 
-0 0 0.06663308007341831 1:0 2:0 3:3 4:0 5:0 
-1 0 0 1:0 2:0 3:1 4:0 5:0 
-1 -1 0 1:1 2:0 3:0 4:0 5:0 
-1 -1 0.4999323334489233 1:1 2:0 3:0 4:0 5:0 
-1 -1 0.9243089081112137 1:1 2:0 3:0 4:0 5:0 
-1 -1 -0.50838301491001 1:0 2:12 3:0 4:0 5:0 
-0.07097062162585872 -0.2016765642358014 -0 1:0 2:9 3:0 4:0 5:0 
-0.1872870701600228 -0.1032595836769256 -0 1:0 2:10 3:0 4:0 5:0 
-0.9956907807562649 -0.9144603508356979 -0.4071832063065899 1:0 2:9 3:0 4:0 5:0 
-1 -1 -0.5086750203435371 1:0 2:6 3:0 4:0 5:0 
